34 64
33 -0.069044285 -0.027030122 0.06876528 0.12067178 -0.12063252 -0.13314877 0.13233799 0.263383 0.0004183835 -0.13122734 0.29697123 -0.109792985 -0.0721921 0.14004144 -0.23493443 0.040772546 -0.035004675 0.013949196 -0.057498112 0.11217773 0.18324716 0.044375166 0.24671601 -0.1201231 -0.033611286 0.077682726 -0.10026886 -0.065971814 -0.116738595 -0.035379883 0.0059719025 0.02851628 -0.22342533 -0.19469628 0.106187 0.22888255 0.19915257 0.093453564 0.21874997 -0.09572255 -0.1273568 0.15451747 -0.06532398 -0.12296187 0.10340823 -0.13555905 -0.047523342 -0.0131423855 -0.04125549 0.27254108 -0.107200794 0.101515785 0.06832987 0.14795023 0.27454042 -0.012058661 0.22132908 -0.06961336 -0.032097347 -0.05892511 0.026094757 -0.1441024 -0.09711113 -0.1592167
32 0.0031638506 0.05613143 0.032538358 0.17100179 -0.16028032 -0.09932209 0.1779944 0.41901642 -0.15175603 -0.11768052 0.15204135 -0.07924147 0.05336201 0.15334174 -0.05520439 0.055752017 0.06784016 0.057848684 -0.0009118983 0.2002814 0.051579565 -0.016191086 0.37704715 -0.10052453 0.0647425 0.13053383 0.043954805 -0.07823667 -0.028246053 -0.07822234 0.17667386 0.06723846 -0.4340342 -0.30195606 -0.054375384 0.088995166 0.05075887 0.14925832 0.104816385 0.1309696 0.15240547 0.025574857 0.046756346 -0.05977257 -0.011734483 -0.1716701 -0.03886243 -0.029633878 -0.024494473 0.19515166 -0.06496823 0.026878977 0.05332125 0.4043364 0.18871704 0.13137497 0.19266841 -0.08062773 0.028916169 -0.045423 0.18644015 -0.046460323 -0.12377541 -0.09520485
0 0.04069407 -0.08797985 0.23692289 0.052782595 0.23898773 -0.11114208 -0.008236364 0.06878255 -0.063844584 -0.12632537 0.20048141 0.032126036 0.14952937 -0.075186424 -0.103733905 -0.040684942 -0.10309282 0.113752924 0.052540302 0.12856604 0.051351823 0.094338626 0.17902444 -0.23474608 -0.07526372 0.15069038 -0.13926254 0.14298713 0.015249455 0.21485138 -0.003984789 0.112550534 -0.21944657 -0.12148163 0.10810178 -0.24106343 0.113296404 0.120836265 0.2885557 0.038697775 0.05740066 0.023981437 0.03471941 -0.08002087 0.11224082 0.010167003 0.1415695 -0.218461 -0.087879404 0.052751023 0.080420405 -0.15537854 -0.18621422 0.12696455 0.111519456 -0.076360814 0.01698827 -0.12964721 -0.011071244 -0.06465283 0.0031921442 -0.29725254 -0.09111913 -0.18521209
2 -0.00372246 -0.08542818 0.07274705 0.098105416 0.10256149 -0.17901608 -0.07912944 0.27182296 -0.04897111 -0.01770433 0.07674262 0.026345655 0.042165317 0.072962314 -0.11442124 0.05344473 0.043844838 0.18814208 -0.17303641 0.11533272 0.246377 -0.045747347 0.34362543 -0.14943469 0.0025170944 0.15355699 -0.19822408 -0.02664609 -0.15526593 -0.14146318 -0.20056613 -0.01364361 -0.05453667 -0.11923362 0.113413714 0.01227195 0.16883124 0.08767111 0.35105348 -0.057468817 -0.12467566 0.15075907 -0.07428305 -0.18962774 0.13445404 0.09153093 0.064650945 0.011628243 -0.06475173 0.097333394 -0.032103978 0.11273765 0.12002685 0.23195253 0.31312066 0.061041918 0.11809462 0.0017714163 0.07479164 -0.057480447 -0.047534864 -0.24696964 -0.043541603 -0.11371379
1 0.14819129 -0.012140571 0.038331646 -0.10943484 0.01500041 -0.11826034 0.06794776 0.12755272 -0.055246662 0.007870351 0.33189118 0.008838772 -0.027985267 0.14780167 -0.038480923 0.08217339 0.013628956 0.09061624 0.026638877 0.24031082 0.301212 0.04951921 0.17395708 -0.123468585 -0.11676436 -0.08441606 -0.21825665 -0.038254935 0.0785006 0.065935805 -0.16541483 -0.0041198945 -0.11882167 -0.10992432 0.013267325 -0.035075266 0.23111984 0.123783626 0.39689213 0.15726021 -0.023021575 0.16612062 0.13875988 -0.26508725 -0.083028935 0.07841218 -0.009132046 -0.17526339 -0.10563331 0.029801106 0.03604247 0.0051544206 0.02898115 0.037740503 0.29425824 0.1826698 0.23139139 -0.097269155 0.092634216 -0.15513815 0.15866123 -0.24788475 -0.07040256 -0.122103475
23 0.08751503 -0.08972282 0.36539385 0.10032151 -0.19606672 -0.02193349 0.09874241 0.2965258 -0.044120863 0.17169185 -0.004638339 -0.07183455 -0.085354105 0.07941221 -0.14758144 0.20916712 0.2614192 -0.052013732 -0.19257303 0.1596927 0.06917213 0.025151383 0.2050919 -0.11877909 0.07162774 0.17691876 -0.09216716 -0.16657636 -0.16908357 -0.28259143 0.16148023 -0.06120122 -0.48549092 -0.23814227 0.10947072 0.083951175 0.09770334 0.15642162 0.23546685 -0.12528686 0.016000338 0.13574463 0.20297559 -0.04795645 0.11002257 -0.1646245 0.014726385 0.023951402 -0.09571049 -0.023129955 0.1849667 0.085790694 -0.081011355 0.24746986 0.24204567 -0.025667079 -0.0010299748 0.093433246 -0.0026418057 -0.018458067 0.040181253 -0.14733832 -0.017911302 0.11893072
5 0.103266224 -0.17384934 0.37353444 0.0991884 0.27837843 -0.22797492 -0.223386 -0.39805147 -0.18794604 -0.31448615 0.101151936 -0.062264837 0.10135059 -0.17265134 0.0811114 0.04220759 -0.45374545 -0.17595017 0.052967045 -0.04492202 -0.035803568 0.13295783 -0.06297918 0.07049191 -0.1556824 0.27565148 -0.12840906 0.11185777 -0.2562519 0.2864436 0.0768496 -0.19464593 -0.32699057 0.03285855 0.32679057 -0.29241577 0.041862365 -0.06734664 0.2030076 0.27976486 -0.09739855 -0.04425952 0.111833125 -0.056567207 -0.13144942 -0.2149451 0.38024583 -0.20002942 0.10492065 -0.16332382 0.35630375 -0.2995411 -0.32471788 0.071139336 0.04679083 0.10560666 0.13126384 -0.20984541 -0.41857365 0.3712242 -0.0069195447 -0.57743275 -0.015395494 -0.19179522
6 0.05556462 -0.21884838 0.2789394 0.15214211 0.20366976 -0.22536471 -0.13007635 -0.47625405 -0.33225232 -0.49721855 0.01823131 -0.09137237 -0.09289732 -0.15281595 0.07316989 -0.0581755 -0.36172926 -0.16621307 0.18394549 0.12699683 -0.10390346 0.08321268 -0.021929286 0.13066484 -0.058002237 0.24929564 -0.10355887 0.10210609 -0.19485483 0.23469852 0.18695298 -0.17676473 -0.3034909 -0.0339071 0.3430295 -0.14831315 0.019370286 0.0041842856 0.22185022 0.23767236 -0.117310174 -0.06165604 0.123651676 -0.066262044 -0.022549545 -0.40868312 0.34170118 -0.26290095 0.08612817 0.0070004794 0.22031322 -0.11279764 -0.21340598 0.14626862 0.03129947 -0.043528613 0.050625898 -0.1606558 -0.27302435 0.3121683 -0.1074973 -0.56827307 -0.08473711 -0.20064978
31 -0.06851162 -0.11760528 0.023629095 0.008874778 -0.13005649 -0.10377366 0.097932644 0.2731351 -0.11264541 -0.0126104215 0.22895207 0.07176748 -0.08474375 0.16236301 -0.07966392 0.08314478 0.018317576 0.070700586 -0.00083135447 -0.031748854 0.0544208 -0.12368119 0.24582788 -0.050207037 0.018402465 0.22175232 0.034931835 -0.11218647 -0.045542456 -0.26678565 0.010565354 -0.119179204 -0.31342176 -0.1814403 0.061005402 0.23206432 0.18055658 0.020466529 0.22233906 -0.16925654 -0.039023053 0.31295377 -0.059929058 -0.03464368 0.113945454 -0.18409596 0.010092601 -0.08636439 -0.011014143 0.14727612 0.14222087 -0.13504414 0.03613986 0.21317622 0.25208676 0.14268884 0.17090474 -0.17425823 -0.062114228 -0.0031066572 0.20320143 -0.14571688 -0.114743076 -0.022869037
4 -0.016870305 -0.14341009 0.2415733 0.08484279 0.3594031 -0.17506678 -0.114038676 -0.54448813 -0.27909297 -0.32210475 -0.054072432 0.039712213 -0.068681225 -0.0053080423 0.17265385 0.09622323 -0.47971725 -0.12050452 0.19259894 0.21917035 -0.14823255 -0.040202785 0.02949336 0.047468185 -0.040546454 0.2732878 -0.23233765 0.0981205 -0.29529923 0.21197169 0.25420517 -0.17396708 -0.245927 0.11892118 0.31907737 -0.30008712 0.1907748 0.11383558 0.046104927 0.27591428 0.05461787 -0.009726415 0.17222658 -0.16846491 -0.09386102 -0.25961825 0.61389506 -0.14269018 0.023078911 -0.046133757 0.20318875 -0.19874258 -0.33520773 0.13408951 0.075039886 0.16656831 0.18533276 -0.1258329 -0.31327283 0.3286856 -0.08984409 -0.67669696 -0.20510536 -0.27253658
10 0.13219912 -0.26162946 0.4112878 0.007571241 0.3270687 -0.03640421 -0.27412692 -0.5487962 -0.30628404 -0.37317404 -0.053437766 -0.14806008 -0.17369777 -0.0638879 -0.070898645 -0.06950024 -0.3506408 -0.2724699 -0.004727319 -0.04974529 -0.079103194 -0.01564265 0.06992046 0.123790346 -0.10022231 0.30507693 -0.19861054 0.02326925 -0.33634934 0.18212304 0.124060206 -0.10390118 -0.29634133 0.11703175 0.42365092 -0.42298102 0.13203833 0.06890455 0.1714106 0.2796812 0.024707722 -0.19248866 0.12396122 -0.05263697 -0.03510045 -0.38925934 0.51711494 -0.21825463 0.009250603 -0.14562486 0.17756861 -0.2131408 -0.3361366 0.10429768 0.07607975 -0.018109685 0.20719856 -0.18344021 -0.26772904 0.3251735 -0.023348417 -0.68363285 0.046662945 -0.18445222
25 -0.046689395 -0.08672167 0.13628407 0.11744026 -0.17817837 -0.17304662 0.044286277 0.34504923 -0.089259565 0.0075268922 0.08038773 -0.10100376 0.07733068 0.024738304 -0.21629429 -0.16102627 0.15725848 0.14433332 -0.019954555 -0.088431574 0.047155734 0.19873017 0.188085 0.094460145 -0.101148725 0.34342587 -0.19194698 0.084438995 -0.039270826 -0.33515194 -0.1231647 -0.01756861 -0.2356127 -0.06928798 -0.046648998 0.19814087 0.32488224 0.017222479 0.31604257 -0.04561061 0.071585126 -0.089603044 -0.0034910433 -0.118200965 0.13584667 -0.05546932 -0.08716615 0.026323885 0.010405477 0.02262248 -0.052171644 0.17876089 -0.024858804 0.35120496 0.26479626 0.0063738804 0.36880818 -0.22433183 -0.015803648 -0.080105156 0.1961354 -0.12044558 -0.18797567 0.07108621
27 -0.056366105 -0.07172529 0.18440308 0.053442333 -0.18977147 -0.16165096 0.07197399 0.16022184 0.099051215 -0.05019399 0.16254963 -0.08372849 -0.09371071 -0.05640571 -0.12814786 0.03445292 0.105916746 0.07314112 0.1151935 0.14773452 0.074047804 0.04825797 0.16099226 0.07099394 -0.12428431 0.26086196 -0.00567935 -0.014348474 0.04456476 -0.27295977 0.02279057 -0.06679725 -0.4279907 -0.029417133 -0.10344669 0.30489805 0.33792025 0.107440725 0.27826852 -0.10987196 0.038780443 0.21499017 0.016723527 -0.23156953 0.33058348 -0.1080052 -0.0058826273 -0.004946437 0.0012181668 -0.06407624 0.005790062 -0.004457986 -0.0424834 0.38060114 0.2696311 0.017981092 0.19397414 -0.0041514835 -0.11759941 -0.06934834 0.15120071 -0.036464468 0.06407207 0.11210507
8 0.17597659 0.07232062 0.15460625 0.09858788 -0.021695377 -0.12994857 0.0034457748 0.07728564 0.024054233 -0.06830617 0.081097275 -0.081106454 0.099723555 0.071214326 0.03085991 0.11182799 -0.07918975 0.016478684 -0.028149335 0.13838503 0.18509531 0.079346515 0.21506865 -0.056586083 -0.068703145 0.107049115 -0.15884034 0.0026279823 -0.05239903 -0.051133066 -0.13512357 -0.020467062 -0.21193638 -0.21303986 0.034364026 0.08652015 0.04793819 0.16350539 0.29538575 0.048419 -0.13938972 0.20642953 -0.03415403 -0.31591073 -0.08474745 -0.057225864 -0.07810746 -0.05946273 -0.09177711 0.059964612 0.06258133 0.06036285 0.06741677 0.11697641 0.20876881 0.2338042 0.21022551 -0.05277892 -0.13917278 -0.035247613 -0.072146095 -0.13315111 -0.083799 -0.023005553
13 0.032214954 0.04537122 0.19638854 0.03125112 -0.060751874 -0.18731502 -0.101571985 0.20120242 0.06309107 0.10573557 0.07774812 -0.039890356 0.045217328 -0.036646836 -0.06972872 0.088714 -0.18723609 0.05744222 -0.18318605 0.16158637 0.21358408 -0.052737482 0.30158684 -0.02659214 0.055355564 0.10308245 -0.11005267 -0.09496176 0.15327126 0.044065535 -0.15913936 0.07278983 -0.22215462 -0.1502948 0.13123403 0.10110617 0.12798926 0.27025172 0.19080487 0.09647901 0.08095183 0.022746654 -0.021259354 -0.25359648 0.05227522 0.018759686 0.03695727 -0.06284509 -0.056419715 0.08587572 0.096847735 0.075270906 0.11114915 0.24085249 0.21793164 0.15078679 0.20441526 0.06113704 -0.036625147 -0.01994459 -0.066277854 -0.21037412 -0.0026863026 -0.095688
3 -0.09177854 0.1540364 0.31186947 0.1711037 -0.005398544 -0.25313634 -0.08266515 0.10162242 -0.07664274 -0.16061047 -0.017929794 0.050969172 -0.10992744 -0.093861274 0.13050233 -0.0046844585 0.003408918 0.048443235 0.056459446 0.17159335 0.2382696 -0.12082242 0.19369546 0.035052735 0.04327183 -0.009180046 -0.20043115 -0.057662193 0.103069514 -0.06927052 -0.35212514 0.19864735 -0.04384097 -0.11065784 0.38218573 0.057329815 0.04619362 0.32981178 0.22968319 -0.030068286 0.13216408 0.14111637 0.10823424 -0.31381556 0.06321952 -0.051709004 -0.12045048 0.04216513 0.02435265 0.087862946 0.12083454 -0.030688044 0.4102058 0.11908382 0.4664997 0.25645694 0.12313185 0.009706496 -0.007219437 -0.20648238 -0.14860693 -0.2854196 0.12608892 -0.17226014
30 0.041451897 0.008109257 0.29130033 -0.05892904 0.05816784 -0.11293654 -0.1162937 0.19861098 0.083277784 0.0060462616 0.0759724 -0.03162431 0.16396189 -0.045940924 -0.1582272 -0.08615904 -0.146022 0.04065107 -0.016721942 0.07126713 0.04692863 -0.15273392 0.27067876 -0.091590025 -0.051775284 0.19297817 -0.12626715 0.04299367 0.05186684 -0.021574875 -0.02521711 0.17500003 -0.29578757 -0.14667068 0.24016985 0.11980645 -0.05070369 0.23157719 0.2135138 -0.056698654 -0.041553024 0.13389833 -0.20172733 -0.23424228 0.16357754 -0.074257635 0.17541736 -0.059255775 -0.1465423 0.3432579 0.015178294 0.18838878 0.00343144 0.11646353 0.18867524 0.15209992 0.18081878 0.045794915 0.08798513 -0.0821136 -0.06084898 -0.10143545 -0.047607273 0.041678406
29 0.042220805 -0.051524576 0.4361149 0.17362897 -0.15097772 0.060397178 0.066524304 0.46735397 0.13648048 -0.04549796 0.18119738 -0.20227565 0.26714313 0.30458936 -0.12238614 0.08208583 0.1214786 -0.034277204 -0.016898178 -0.0127890045 -0.030678824 0.089270405 0.17882706 0.02600494 -0.10354875 0.16638754 0.081476554 -0.09395338 -0.05212201 -0.31150815 -0.013282687 -0.15390478 -0.3764458 -0.36518204 0.12969898 -0.040657107 0.091725886 -0.054835834 0.11807201 -0.035019908 0.20956264 -0.035146922 0.08368214 -0.0974286 0.2196748 -0.12799972 -0.011938263 0.060407046 0.08581329 0.08971132 -0.090438776 -0.16271585 -0.22831984 0.15821254 0.31972012 0.16995071 0.28651002 -0.16505711 0.12826014 -0.13635221 0.18005516 -0.016909154 -0.15476198 -0.1698712
16 0.14662187 -0.061092824 0.19590914 0.0245156 0.21366632 0.045374844 -0.17478928 -0.31594035 -0.19392593 -0.39299822 0.04167813 -0.02740448 -0.204987 0.052307412 0.104344256 -0.06385422 -0.29790118 -0.032815497 0.07169037 0.14996336 -0.102270156 -0.11363812 0.19923422 0.04058631 -0.1882549 0.39056167 -0.122862905 0.004354935 -0.30061466 0.123204 0.08431248 -0.00065725634 -0.15634696 0.088006616 0.15576123 -0.40088895 0.21607894 0.15047081 0.058822524 0.15170816 -0.072298184 0.1337016 0.052082725 -0.015625775 -0.0647219 -0.23996763 0.37197024 -0.17453611 -0.102863796 -0.05847868 0.21103053 -0.33012012 -0.20268694 0.29926074 0.033867136 0.18986422 0.12561017 -0.22374727 -0.2415078 0.15419933 0.037110653 -0.34841397 0.055980034 -0.13974743
24 -0.04327678 0.03744238 0.22766893 0.028010357 -0.30190042 -0.20965576 0.1049932 0.40355092 -0.1521172 0.15907344 0.029069766 0.20095836 0.050252613 0.14761844 -0.20571013 -0.048681095 0.016641213 0.16549036 -0.034510903 -0.07989136 -0.047318503 -0.035261914 0.20069484 -0.038769584 0.05613869 0.25325474 -0.20020942 -0.03472736 -0.051279318 -0.2912939 0.090437666 -0.069689006 -0.2724942 -0.17072779 0.23674858 0.14959382 0.055935983 0.0092633115 0.22764164 -0.118976474 -0.009187523 0.10586257 0.09500734 0.055789635 -0.14422637 -0.09664753 -0.013522974 -0.093352206 -0.120331794 0.2532764 0.28528622 0.21203665 -0.057946853 0.18633851 0.26929778 0.15445936 0.09432074 -0.21222444 0.08055169 -0.065101944 0.16734934 -0.21734542 -0.33878255 0.071031116
7 0.103374615 -0.009025025 0.16672455 0.052989542 0.117409475 -0.14069356 -0.031502977 0.0429391 -0.10180759 -0.14737232 0.11319682 -0.076504305 0.036523264 0.010594572 0.018343994 0.04136287 -0.05423634 0.099381976 0.19331956 0.2234992 0.21336986 0.03524051 0.14240329 -0.027609142 -0.12241131 0.04759294 -0.20544018 -0.08271697 -0.011227788 -0.030225195 -0.1587378 0.09750318 -0.12705441 -0.19050781 0.271168 0.13304539 0.09827115 0.16214818 0.2690286 -0.009157084 -0.07801248 0.20081505 -0.0060767364 -0.24059947 0.08162488 0.005704393 -0.08505539 -0.1758876 -0.045241598 0.25691265 0.028854445 0.07011393 0.21148802 0.017584734 0.3051948 0.21882333 0.08760934 -0.034592174 0.036773372 -0.18909481 0.008701452 -0.21692611 0.04349276 0.0008844361
26 -0.09763354 -0.23166493 0.12028857 0.07031483 0.08557734 -0.19204348 0.10709787 0.45532924 -0.056113247 0.037780296 0.07116969 0.11208569 0.23938105 0.043777604 -0.17143194 0.17119078 0.18931422 0.18712227 0.06573621 0.14365385 0.16153927 0.015492796 0.27757305 -0.03850604 0.068824664 0.24610066 -0.088348344 -0.052404832 -0.17883305 -0.18449289 0.3168733 0.17588557 -0.35238472 -0.097296536 0.016797494 0.14202929 0.09869424 -0.059554096 0.31620726 0.035213493 0.1676066 0.13422844 0.1472974 0.054024085 0.11035778 -0.31720275 0.087729484 0.19090366 0.10334755 0.0064728395 -0.060899116 -0.028647613 0.12259157 0.1498511 0.025659986 0.34634992 0.39838123 0.038663052 -0.033094667 -0.20342305 0.28916278 -0.05242133 -0.1634845 0.16436401
28 0.12733702 0.08040771 0.30048364 0.0027660686 -0.28023058 -0.12785463 -0.0060417596 0.19173788 0.08680779 0.050543383 0.14851123 -0.09191609 0.037427757 0.009807611 -0.2139583 -0.002937282 -0.040727254 0.059274156 -0.0009535656 0.085455194 0.15499891 0.11442354 0.15948236 -0.015063221 -0.08610345 0.14751677 -0.22229598 -0.13675699 0.03802242 0.0024426861 -0.025509844 0.13760005 -0.29742554 -0.09647209 0.14894083 0.096297435 0.13572645 0.2215682 0.22832434 -0.0004556894 0.018077496 0.0656662 0.11526776 -0.09235456 -0.0619662 -0.1193901 -0.15163533 -0.11698644 -0.14906694 0.051219657 0.16399628 0.0859803 0.0036693802 0.17355657 0.18410078 0.11486933 0.18077196 -0.049257394 -0.09295387 -0.16816592 0.08449472 -0.13291578 -0.00563386 0.014402464
15 0.063714996 -0.149196 0.03776293 -0.003070028 0.03966276 -0.034838147 0.056488805 0.28137866 -0.19983284 0.13991404 0.16855212 -0.16881666 0.045372684 0.075421266 0.04031167 0.11935606 0.0828602 -0.06291841 -0.09623149 0.0912537 0.12271726 0.05374135 0.19708073 -0.039673228 0.022445885 0.2080919 -0.09747208 -0.03251612 -0.016355883 -0.17096 -0.091254085 0.0067685894 -0.30827677 -0.21503665 -0.014952191 0.19308053 0.18715036 0.1668453 0.20905346 -0.07359368 0.06945394 0.06728015 0.018897347 -0.18201968 0.04785236 -0.059587907 0.04828776 -0.028171813 0.0067342133 0.11095124 0.06823379 -0.010595581 0.032649897 0.1897909 0.22671856 0.11216847 0.2973732 -0.15280972 0.0037902824 -0.07163147 0.1446671 -0.14728251 -0.1417572 0.03582536
19 0.16478707 -0.01539314 0.20220421 0.04793088 0.052950043 -0.10916743 -0.08358871 0.23213433 -0.020530237 0.086654454 0.022886459 -0.11570951 0.17339844 -0.027243696 -0.018493421 0.029959096 -0.116560146 0.04848466 -0.10419294 0.118006945 0.13281603 -0.0021843603 0.2544853 -0.0598425 -0.03257597 0.19703634 -0.11865171 -0.0038941824 0.045210447 -0.057480335 -0.07700034 0.07447742 -0.26629156 -0.2181215 0.11051085 0.139998 0.0233539 0.21015419 0.21535663 0.045076244 -0.056020785 0.07698333 -0.1106249 -0.22940975 0.022666918 0.00033590867 0.06408748 -0.089771025 -0.100449845 0.2292099 0.09876374 0.16001265 0.06546374 0.19617206 0.16988277 0.16887765 0.17953293 -0.00475395 -0.015395432 -0.016378624 -0.011360867 -0.13212664 -0.057566144 0.07891896
12 0.026995864 0.038884588 0.18823878 0.012703073 0.27643093 -0.19777392 -0.04416682 0.13213898 -0.027019292 0.0026832465 -0.13971949 0.032260112 -0.21177074 0.09191534 -0.26838613 0.26363054 -0.39529413 0.2774508 0.032127947 0.16736859 0.34405676 0.12811515 0.2686762 0.008802702 -0.14080745 0.17015561 -0.20887762 -0.27134824 -0.041927814 0.08451764 -0.054157786 0.12827362 -0.07034959 -0.2168861 0.28167668 0.10532528 0.4741762 0.14989759 0.0034695426 0.014640123 0.029513646 -0.028847817 -0.020621734 -0.08450435 0.15091853 0.32341897 -0.22450231 -0.36722392 0.09067514 0.26847786 -0.045493703 0.089579314 0.21821655 0.11932991 0.33123994 0.3469296 -0.042477652 -0.05357991 -0.13678782 -0.11785191 0.025690826 -0.2618511 0.06672973 0.16700579
14 0.117841795 -0.13527583 0.1748239 0.14837928 0.06440922 -0.017769186 0.12000084 0.40602458 -0.084562056 -0.047395658 0.1599104 -0.25068602 0.11487157 0.07336234 -0.042476054 0.051971607 0.17030597 -0.08700799 -0.11332685 -0.003264301 0.16188937 0.15519929 0.13550675 -0.13409255 -0.057458464 0.13975193 -0.05467467 0.014979768 -0.07316194 -0.08608021 -0.03780223 0.13255243 -0.31291467 -0.33168724 0.0055813957 0.16812496 0.0830298 0.17169017 0.27164352 -0.116803095 -0.034646813 0.037297074 -0.0038144141 -0.1455099 0.118401624 -0.21219659 -0.13450272 0.020960046 0.066754304 0.16731372 -0.021968162 0.028033791 0.081139214 0.11592567 0.24333216 0.037584208 0.3272461 -0.10518048 -0.06949029 -0.09746939 0.04589107 -0.08087116 -0.12313809 -0.026645664
22 0.094949864 -0.205295 0.116348125 -0.011235427 0.018894812 -0.04436687 0.04020765 0.3883165 -0.123901054 0.16403918 0.14768499 -0.1662346 0.12131776 0.08913908 -0.056057155 0.07652114 0.04485216 0.011852441 -0.098059006 0.06932201 0.14583117 0.036429305 0.17100139 -0.045675267 0.0024308455 0.18317978 -0.05971729 -0.07939685 -0.0037089018 -0.093863145 0.07693713 0.063752465 -0.28463796 -0.16795745 0.028710194 0.17903146 0.17057243 0.15642048 0.18370527 -0.0019699305 0.0744304 -0.021806626 0.030005151 -0.094504915 0.10475687 -0.12108582 0.11783834 -0.011482341 0.026561873 0.18733156 0.06000977 0.115741074 0.008268162 0.203784 0.18662578 0.08336598 0.3621752 -0.027879724 0.053540625 -0.06582126 0.20982331 -0.17612149 -0.12555392 0.028358672
21 0.23461038 0.021548174 0.21705964 0.01477797 0.10780583 -0.13960522 -0.14045872 0.049575113 0.012493982 -0.16483502 0.00076895615 -0.102966525 0.07539072 -0.035229295 -0.019428905 0.033662673 -0.16329224 0.010178946 -0.0015929805 0.11791324 0.19194926 -0.006278028 0.2292767 -0.044787474 -0.12132049 0.19143079 -0.14574125 0.000848645 -0.07702483 0.019417863 -0.09719468 0.10325498 -0.19654393 -0.19497538 0.1613225 0.103839055 -0.050582916 0.1839315 0.26486456 0.024996346 -0.26973745 0.20897564 -0.16121754 -0.26270857 -0.0025818523 -0.0713166 -0.017335339 -0.13032371 -0.10733036 0.22084609 0.059475232 0.15559147 0.12423229 0.11522187 0.15140182 0.26549435 0.1305474 -0.0034766814 -0.108073436 -0.03807887 -0.11369642 -0.098722234 0.044812854 0.102613576
20 0.092820674 -0.29075602 0.28586906 -0.037310265 0.051278576 -0.02772942 0.15019986 0.5110034 -0.08806644 0.14643396 0.09760125 -0.09730561 -0.06728692 0.19520523 0.01619125 0.079116516 0.21478918 -0.0053852256 -0.04986008 -0.021085769 0.16831818 0.06342661 -0.020271065 -0.16447757 -0.02621731 0.17187302 -0.03619725 0.022799838 0.08351111 -0.18645604 0.09376252 0.059626848 -0.2291771 -0.2538687 0.0023259846 0.21260157 0.24503417 0.2602192 0.16124246 -0.16472329 0.017763704 0.063335724 0.049534116 -0.117071316 0.29197878 -0.21422935 0.0039919904 0.055364493 0.09167558 0.17751227 0.044341605 0.057000145 -0.018701805 0.14439759 0.27310538 0.0845502 0.38179967 -0.036121186 -0.04995828 -0.031550117 0.14553012 -0.15936254 -0.25818008 -0.015017426
9 0.07899948 0.076676235 0.087720215 -0.021259386 -0.18573296 -0.15298726 -0.013773304 0.08098197 0.04364676 0.13440378 0.17046322 -0.10335198 0.06924819 -0.036135003 -0.10081399 0.120115004 -0.1898478 0.027690172 -0.05162436 0.18365183 0.18128213 0.06375123 0.26596764 0.029706327 0.012216824 0.10838593 -0.1418529 -0.1356001 0.15413922 0.07133132 -0.08750458 0.07329126 -0.3404282 -0.1174922 0.029990898 0.1932354 0.18138738 0.26280248 0.21919526 0.11218172 0.087599285 0.05567808 0.026219055 -0.25087765 -0.05307456 -0.034389097 -0.038144227 -0.13881107 -0.12021441 0.04892313 0.11898086 0.06799044 0.06398579 0.21145834 0.1322573 0.15944058 0.27262047 0.0128489435 -0.11189026 -0.072958976 0.042854708 -0.16589662 -0.015157083 -0.009349803
18 0.050155044 -0.12207612 0.15521844 0.06838418 0.0041268216 -0.010771987 0.09000633 0.36773032 -0.15382619 0.19355333 0.1525585 -0.17893368 0.070439085 0.08500485 0.056299064 0.085075654 0.023851346 -0.06415349 -0.15781753 0.08795708 0.08791749 0.03193493 0.17586593 -0.10457694 0.0711134 0.16992432 -0.04163215 -0.019641135 0.06675253 -0.099411346 -0.016795287 0.063795805 -0.30337283 -0.25520322 0.03986811 0.17831688 0.14448997 0.26373613 0.09797689 -0.05297077 0.13051155 0.0065531437 0.0039899214 -0.14311117 0.06957336 -0.10862882 0.089142606 0.000993729 -0.0030837278 0.20905088 0.10636449 0.012084531 0.02660102 0.19901356 0.21254395 0.045136645 0.30915204 -0.08715427 -0.013481439 -0.013453729 0.099839166 -0.17949675 -0.17862609 -0.052325793
17 0.15828337 0.048394404 0.23286225 0.012866243 0.1351372 -0.18731274 -0.11669391 0.020041516 0.103489816 -0.21863718 -0.061912417 -0.004322486 0.124599755 0.05232663 -0.10241095 0.07914815 -0.19657081 0.091132 0.06051802 0.09400577 0.14345297 -0.03908446 0.26687676 -0.07766329 -0.09254146 0.13792817 -0.103403725 0.02082432 -0.11270345 0.08928828 0.027265789 0.04238913 -0.22361727 -0.14221653 0.11742867 -0.06981783 -0.044611275 0.13480744 0.24009433 0.079102345 -0.17902078 0.14996989 -0.13330059 -0.27961978 0.06901523 -0.068906486 0.05548851 -0.105763905 -0.06956162 0.13338311 -0.07202561 0.11595694 -0.036713324 0.15050118 0.16609913 0.25749117 0.11687938 0.06552185 -0.10506057 0.0059715323 -0.14563537 -0.14788133 -0.023240793 -0.045918446
11 0.2608955 -0.03257628 0.16748632 -0.14526977 0.073939465 -0.28767335 -0.13142627 0.06233435 -0.047222752 -0.21754096 -0.19052173 0.11902974 0.010804321 0.1683232 -0.029693866 0.13779698 -0.0127012925 0.11668656 0.1921084 -0.26710668 0.2175511 -0.06575867 0.13607284 -0.13311553 -0.026327446 0.06536756 -0.009859142 -0.036957406 0.0077835806 0.04678251 0.016113993 -0.08951382 -0.26203048 -0.11018348 0.013549554 -0.1995644 -0.07080363 0.15141276 0.24104688 0.12878327 -0.13852966 0.07376358 -0.067380704 -0.26305854 0.05300001 -0.13059059 -0.1454653 -0.20630455 0.004146795 -0.102128275 0.0016752076 -0.045068372 -0.11016569 0.25730336 0.26937085 0.28835094 0.11984596 -0.018085752 -0.26966438 0.15521447 0.0048904135 -0.3161594 -0.043251872 -0.2127884
