34 64
33 0.1512394 -0.033307545 0.29040095 0.19071105 -0.34679198 -0.33422208 0.07367508 0.39356914 -0.064453766 0.32296136 0.2338873 -0.5485825 0.21349347 0.057864167 -0.24090055 0.16353552 -0.09438903 0.13947296 -0.26324752 -0.09631665 0.53428227 0.21508507 0.5281147 0.17378443 0.13783944 -0.21222673 -0.047712136 -0.118708655 -0.092267305 0.043507125 -0.24380997 0.21371937 -0.33216357 -0.14027348 -0.0069891936 0.1328058 0.55920416 0.19429283 0.16674367 0.054645143 0.01624059 0.09853356 -0.21818724 -0.32171384 0.17916605 0.29522392 0.088743724 0.17031619 0.10475513 0.4239558 -0.3620469 0.2569288 -0.0845888 0.28060552 0.5479856 0.037571568 0.35906234 0.25871184 -0.20656288 0.21106716 0.2900649 -0.1507226 0.36701268 0.0010513193
0 0.38656402 -0.040756613 0.066950284 0.11781162 0.014243966 -0.30957884 0.065095 0.3909359 -0.2795201 -0.3902352 -0.009378982 -0.046595432 0.10677596 -0.06750495 0.1587991 0.12993625 0.1432961 -0.10314268 -0.06024352 0.42976543 0.16944776 0.03849958 0.4288019 -0.26923656 0.09977897 0.34587517 -0.023548035 -0.020572716 0.13637304 -0.0636523 0.087669805 -0.015107813 -0.5818809 -0.5592931 -0.09629073 0.30764535 -0.4506147 0.3289464 0.6624244 0.1604248 -0.11484107 0.02620892 0.16457 -0.34817895 -0.2724099 -0.37633964 -0.21091652 -0.53106683 -0.14395924 0.11165492 0.43374068 0.38161117 0.32528907 0.5817102 0.22241826 0.1760552 0.086461194 -0.28075233 0.14475515 -0.27543542 -0.095045336 -0.20505697 -0.2725542 0.1287821
32 -0.06197908 0.0658398 0.72379756 0.18099375 -0.24079603 -0.06050408 0.33358872 0.32545948 -0.042042606 0.48199624 0.544213 0.106835134 0.3142198 -0.031207625 -0.39854932 0.29836673 -0.17227982 0.15234935 0.12954384 -0.3834032 0.34897348 0.32071403 0.44828296 -0.08768021 0.100554995 0.06907701 -0.07454873 -0.14944333 -0.0072530177 0.048561845 0.07950844 0.34732 -0.498344 -0.34258193 0.20343079 -0.07942348 0.63283294 0.30246055 0.15414734 -0.032584623 0.49112156 0.0666304 -0.19996074 -0.38260314 0.4200787 0.2187619 -0.04061142 0.1832189 -0.06750119 0.24559388 0.22190656 -0.06156022 -0.2834119 0.06874442 0.39987594 0.059734445 0.62306494 0.11634244 -0.17257543 0.032772712 0.55589896 -0.38544568 0.26001513 -0.009822366
1 0.2663577 -0.19487108 -0.17467818 0.46520525 0.19415954 -0.14838529 0.118199565 0.4989441 -0.11568902 0.36611086 -0.15367875 -0.34833223 0.30709758 0.18017152 0.14194982 0.6592481 -0.15351869 0.045666143 -0.70237476 0.57187396 0.47938466 0.32379502 0.6550703 -0.21104097 0.29549527 0.45400327 -0.16185439 -0.2094304 -0.2283319 -0.054490115 -0.00935476 -0.13246599 -0.31938455 -0.36737782 -0.19995588 0.4755917 0.006548417 0.396901 0.68349534 -0.049245995 -0.1408678 0.009970276 0.21907696 -0.3353308 -0.4534782 -0.26813003 0.05457503 -0.15084626 -0.13609079 -0.017723808 0.3978801 0.27700192 0.60933 0.5020828 0.16678618 0.13609706 0.56270486 -0.07176139 -0.24833441 -0.2939 -0.2677561 -0.4901451 -0.46164605 0.023580357
2 0.27463484 -0.062327877 -0.006877635 0.32311836 0.21601379 -0.10225076 0.032601584 0.3930029 0.12531962 0.45149735 0.2011575 -0.23582831 -0.090138935 0.21611756 -0.014695208 0.38001886 -0.021189587 0.30332193 -0.45701006 0.66695166 0.8335741 0.04812469 0.7479217 0.035409924 0.0028819742 0.111940324 -0.3153665 -0.1401942 -0.3831132 -0.2680031 -0.08490479 -0.103745505 -0.10918366 -0.081502244 -0.32044107 0.15734024 0.19162118 0.14351334 0.6771261 0.15498537 -0.14665549 0.53848547 -0.048876964 -0.6261703 -0.4309627 0.054650422 0.057319697 0.36509314 -0.20125967 -0.20826627 -0.021070482 -0.07207007 0.5299918 0.37243178 0.37197667 0.42355454 0.174602 -0.072456725 -0.19734226 -0.046485133 0.22529985 0.089610755 0.09638382 0.3837014
3 0.36150506 -0.06207521 0.25714648 0.18394068 -0.07729431 0.1419598 0.27031276 0.40453354 -0.11969246 0.2215547 0.3177726 -0.44864443 -0.13512191 0.13355741 0.3851149 0.65465325 0.19268069 -0.35065886 -0.35354602 0.8223024 0.4190908 0.47098845 0.5498858 -0.2825152 0.12937813 0.6202262 -0.33108068 0.021231448 -0.49168193 -0.0412536 0.0628395 0.065742545 -0.66735834 -0.77605885 -0.40308928 0.25741956 -0.028298857 0.7670831 0.52479947 -0.47137618 -0.3564006 0.5396471 0.11794077 -0.552743 -0.2070562 -0.020597946 -0.01630232 0.3098927 -0.37064216 -0.09371837 0.35324618 -0.021680195 0.03050652 0.54458374 0.048600897 0.32872796 -0.035778824 -0.13377357 -0.24369615 -0.22523947 -0.23254423 0.4548091 -0.2358485 0.44059476
31 0.12689194 -0.18691374 0.7502179 0.3866963 -0.15081143 -0.55817777 -0.29082188 0.24939774 0.33102766 -0.1612722 0.51908636 -0.2890869 0.4604063 -0.19870378 -0.48690704 -0.16454662 -0.10624876 0.12495663 -0.28053752 -0.07303762 0.23996294 0.34034425 0.49060655 0.25791693 -0.24741897 0.4577408 -0.32914922 0.057748497 -0.29186812 -0.39874297 -0.25315082 -0.20682293 -0.56489503 -0.077521026 -0.06741452 -0.15389933 0.36606765 -0.4049852 0.5037776 0.6009941 0.2525489 -0.059460297 -0.23557992 -0.46967822 -0.030339003 -0.05942228 0.059233043 0.107449956 0.11339284 -0.33423015 -0.009397343 -0.14509939 -0.44090527 0.54986864 0.3194193 0.32689732 0.42279002 -0.5666812 -0.3874513 0.5584603 0.46671546 -0.04078629 0.08953199 0.1921357
5 0.10220385 -0.19412167 0.752995 -0.09672215 -0.3269275 -0.62370634 -0.16078277 0.32492435 -0.75751555 -0.25766072 0.16146898 0.24306624 -0.154223 -0.31119162 -0.059525188 -0.18183227 0.10298988 0.1644554 0.26272583 0.23931216 -0.13126433 -0.13655843 0.3681648 0.3827833 0.06025703 0.7043281 -0.14380898 0.030645492 0.033334266 -0.33049595 0.029338485 -0.17519921 -0.954613 -0.54459584 0.51038975 0.069815174 -0.077621944 -0.036525913 0.7384409 -0.122262605 -0.057821866 0.35088536 0.25783157 -0.14599256 0.21105213 -0.44908375 -0.071640976 -0.47802565 0.18071507 0.20320863 0.7516042 0.08314483 -0.19736825 0.67846084 0.5287611 0.23861323 -0.27308977 -0.3845427 0.28860798 -0.017370762 0.20046595 -0.42092934 -0.155498 0.3320258
6 0.033346113 -0.24797107 0.7336534 -0.13178872 -0.3816733 -0.6022604 -0.11261405 0.3509715 -0.7240187 -0.13787311 0.23095189 0.3190002 -0.1854861 -0.24438085 -0.109177075 -0.21350867 0.12789556 0.22104761 0.26992735 0.07315203 -0.14087628 -0.1779417 0.39081597 0.4435275 0.08907593 0.7073936 -0.115726076 0.008895101 0.03464832 -0.40799522 0.032190036 -0.22202507 -0.9299097 -0.48109487 0.46804026 0.06952917 -0.07551521 -0.07217424 0.83251035 -0.223353 -0.0013978537 0.40819034 0.2029476 -0.16523315 0.18539342 -0.50922316 -0.05422661 -0.43435335 0.15744159 0.17669272 0.84655225 -0.00871966 -0.1935231 0.6495539 0.5728165 0.2693288 -0.23050262 -0.5005744 0.27445406 0.021336697 0.33065757 -0.38026303 -0.19478706 0.38319904
23 -0.16305561 0.014755681 0.8059029 0.2156546 -0.030833952 -0.23099306 -0.0149535285 -0.31752902 0.2717515 -0.31163487 0.27129573 -0.36063436 0.07970463 0.05097829 -0.3270225 0.19340856 -0.17659275 -0.20185836 0.11201423 0.13437854 0.05135582 0.0651866 0.44460556 -0.12596147 -0.176896 0.22859904 -0.37542665 -0.1765538 -0.4218001 -0.31127548 -0.05996652 0.09543585 -0.85830814 -0.034558136 0.35976356 0.017808571 0.6905223 0.42034236 0.03517718 0.17166363 0.52337873 0.14514753 -0.17195301 -0.595818 0.559327 0.0034749005 0.4452639 0.0137103945 -0.069064006 0.009447814 -0.3283149 -0.022253763 -0.42257187 0.30212536 0.65418404 0.25337854 0.53184134 0.116058744 -0.42367545 0.26565257 0.10817566 -0.47192153 0.3007664 -0.07906672
29 -0.07019674 0.10197844 0.7335394 0.36786237 -0.2585463 0.0431688 0.24969465 -0.37117502 -0.35340473 -0.06760521 0.3309456 -0.5657148 0.0031816969 -0.19901864 -0.17218871 0.03928345 0.20130995 -0.17766088 -0.024607802 0.16398433 -0.11419185 0.3389216 0.42273828 -0.18380082 -0.14947201 0.09609876 -0.62441254 -0.45594892 -0.5419308 -0.25372636 -0.28683928 0.61496574 -1.0228002 -0.32575694 0.5632756 0.06379647 0.8958162 0.79941714 0.08087381 0.008319034 0.6684142 0.105294615 0.009890651 -0.20733143 0.489103 0.2058921 0.10468431 -0.31093708 -0.19736682 0.35100642 0.1308129 0.2674987 -0.056392662 0.16431448 0.6948629 0.024846388 0.2763697 0.25486735 -0.2808219 0.2045949 0.24231915 -0.53655726 0.62102616 0.3801668
25 -0.014406755 -0.117667 0.9623618 0.30361763 -0.1427566 -0.57118505 -0.31559074 -0.08218928 0.42249048 -0.47743633 0.45079803 -0.32111952 0.373221 -0.08845296 -0.45882812 -0.055100545 -0.20172523 -0.06968933 -0.15119402 0.111357145 0.039239246 0.2252364 0.5213668 0.17236578 -0.30588868 0.6378588 -0.4424245 -0.0026594729 -0.5121369 -0.51030666 -0.18733175 -0.2631902 -0.9026492 -0.09017616 0.103986174 -0.08418911 0.42470565 -0.15155508 0.39447072 0.51676345 0.40469977 0.058970816 -0.2267607 -0.6345526 0.23441038 -0.21520066 0.25439268 0.028857764 0.1350508 -0.43392897 -0.13339323 -0.078255035 -0.59313786 0.6030016 0.47728947 0.46565327 0.5473303 -0.4089947 -0.46638715 0.51613283 0.22162269 -0.20297135 0.030849924 0.13398963
27 0.06770024 -0.08116628 0.62183887 0.1605801 -0.010152115 -0.31125605 -0.26222956 0.053303547 0.517597 -0.3090612 0.22547328 -0.6330939 0.017559353 0.24126855 -0.36439595 0.34237772 -0.13940307 -0.16856459 0.006401595 0.48044014 0.41365206 -0.05912833 0.55617607 0.046035007 -0.23369074 0.22405994 -0.12429646 -0.1310335 -0.3777489 -0.3577612 -0.051353168 -0.29142395 -0.7205784 0.07014223 0.17048311 0.12737115 0.39967126 0.09456589 0.23061799 0.14797837 -0.03171795 0.30003494 -0.12435485 -0.7231528 0.42495134 -0.0715488 0.49255815 0.21052948 -0.07705684 -0.031686485 -0.663917 -0.12490197 -0.3171948 0.54566187 0.69364214 0.24085161 0.3954816 0.1002389 -0.27029893 0.039124228 0.014698627 -0.24036668 0.32007682 -0.27973253
8 0.16521297 0.064575665 0.13168482 0.2555324 0.014860234 -0.091227286 0.24194431 0.14749052 -0.32230368 0.5065253 0.2629852 0.04260305 0.14762536 0.023141295 -0.18999302 0.5444564 -0.019003995 0.30651227 -0.0056872666 0.33605406 0.72700346 -0.051253762 0.7844113 0.07617174 0.31188107 -0.07549971 -0.0694927 -0.42453468 -0.45852846 -0.10929696 0.39034766 0.25508222 -0.44144663 -0.067418925 -0.01820302 0.124784425 0.09229168 0.07968115 0.33161432 0.26042083 0.3233678 0.52815294 -0.05222433 -0.3965462 -0.23840255 -0.26396987 -0.116369106 0.30178592 -0.0073158513 -0.10725934 0.09622132 0.004950099 0.5433286 0.1178372 0.26281485 0.27269766 0.43068668 0.37428898 -0.13878345 -0.169812 0.5866613 -0.3158654 0.48656037 0.4050368
10 0.16535178 0.15433314 0.7925217 -0.09175687 -0.40635654 -0.7200554 -0.31079462 0.2693182 -0.64231974 -0.5504485 0.1537098 0.22566557 -0.185518 -0.5643889 0.15113884 -0.21098146 0.11367427 -0.011096419 0.20394945 0.6525208 0.14390092 -0.24129644 0.47585395 0.20699118 0.13011204 0.49523628 -0.32426628 -0.013961697 0.34604248 -0.15063782 -0.3330965 0.28397676 -0.7708295 -0.5631109 0.61945474 0.13944139 -0.16016199 0.3898416 0.58307606 0.20739299 0.13897109 0.28591624 0.3856619 -0.31116048 0.11296852 -0.3185949 -0.26949966 -0.43616378 0.08820645 0.09126042 0.59924287 0.24946855 0.23739965 0.69494843 0.49318746 0.40917587 -0.14450148 -0.10493196 0.37581682 -0.38966185 -0.07365104 -0.38250095 0.15957017 0.1777704
4 0.11540666 0.1731529 0.79126596 -0.114816196 -0.45215848 -0.7052494 -0.2658454 0.22906576 -0.5738855 -0.4935392 0.24113083 0.30441034 -0.19805159 -0.55963403 0.1366227 -0.26965785 0.14490847 0.001775381 0.2547588 0.5335509 0.17527814 -0.2581545 0.46501333 0.250316 0.15075004 0.4072727 -0.3283914 -0.0055860546 0.40940052 -0.12727696 -0.36664966 0.31876743 -0.69021153 -0.47182277 0.58983284 0.09605461 -0.2324513 0.4084533 0.6992142 0.19171606 0.22787778 0.29054806 0.37418252 -0.39700678 0.02428305 -0.38264626 -0.28961447 -0.37681505 0.03317164 0.027951038 0.6895683 0.18251918 0.30593288 0.6113066 0.5177673 0.4413864 -0.06824796 -0.19447383 0.381897 -0.41463834 0.010820199 -0.34458295 0.16872199 0.17876446
13 0.14018027 -0.03684183 -0.024391 0.1947884 0.113186635 -0.030271318 0.076352246 0.45228755 0.023311032 0.44977883 0.1575334 -0.17365262 0.12933247 0.13463247 0.008834111 0.5136722 -0.05812222 -0.038834564 -0.57013905 0.61255485 0.38133568 0.14680104 0.5316962 -0.19332048 0.13516101 0.31893563 -0.27224296 -0.15116806 -0.32992095 -0.026224988 0.044185422 -0.08567601 -0.3884613 -0.50372726 -0.068286054 0.40721574 -0.18496683 0.34524733 0.58353364 -0.07049538 -0.3576621 0.22583014 -0.07914232 -0.5308161 -0.2386633 -0.09549948 0.056793798 0.19272514 -0.26440316 0.21182361 0.28312075 0.43805373 0.4405973 0.25808486 0.1068348 0.27672768 0.32115975 0.108066425 0.038778786 -0.037123956 -0.30515206 -0.028944964 -0.35785812 0.21484365
24 0.12971447 -0.11507608 0.869755 0.24118082 -0.12964979 -0.45391735 -0.42100406 0.12678538 0.57524836 -0.48388404 0.403337 -0.5583324 0.25302586 0.107045375 -0.44661805 0.16400261 -0.11927589 -0.15260203 -0.089623034 0.41115627 0.24638928 0.074813835 0.5557742 0.19331792 -0.33665323 0.5158807 -0.1670855 -0.06268796 -0.44853222 -0.5001632 -0.1357177 -0.47331077 -0.84064263 -0.05956617 0.12937903 -0.026939232 0.22453651 -0.2541559 0.38044262 0.35985786 0.02039576 0.20185407 -0.13241544 -0.6897736 0.29701996 -0.21102293 0.3321374 0.14186847 0.037916567 -0.29486468 -0.4166414 -0.2042051 -0.5214593 0.6791045 0.56837463 0.35119772 0.38028476 -0.26198557 -0.24587518 0.19418794 0.10056347 -0.10977891 0.18717979 -0.1546276
7 0.3794751 -0.040301297 -0.0071945027 0.31044707 0.050257124 0.09502017 0.11875085 0.42638284 -0.018033538 0.3658258 0.17217417 -0.25530028 -0.15779683 0.3207787 0.29855093 0.6857576 -0.05370399 0.06851336 -0.5662884 0.89197904 0.62049085 0.32179835 0.6830398 -0.0990496 0.057312075 0.54590726 -0.37403658 -0.25926447 -0.37098753 -0.059677612 -0.1561298 -0.16576521 -0.24210449 -0.5297996 -0.3199053 0.17484996 0.20156224 0.60502446 0.7873648 -0.2246614 -0.32411617 0.4378363 0.28738508 -0.6004367 -0.4055001 -0.07397596 -0.10048887 0.11752593 -0.3158409 -0.25861764 0.5326645 -0.056379613 0.4588762 0.58869374 0.23311399 0.4139421 0.2588202 -0.15883274 -0.17366296 -0.3401988 -0.23977879 -0.047669515 -0.3174157 0.14359093
16 0.03568987 -0.34932032 0.76139283 -0.08517933 -0.35227785 -0.5458023 -0.042909864 0.4317476 -0.7342205 0.045340013 0.20938066 0.2697646 -0.12727092 -0.10533181 -0.24199109 -0.12603481 0.100623846 0.28237128 0.21808803 -0.08678205 -0.207163 -0.10412635 0.40509647 0.47119403 0.04825952 0.79612523 -0.082647584 -0.0025017487 -0.17465456 -0.49051273 0.19667211 -0.37746137 -1.0465947 -0.4778049 0.44047633 0.022053046 0.04858903 -0.21814159 0.8474697 -0.3368002 -0.088190846 0.42511 0.16236869 -0.100340694 0.21172073 -0.4938233 0.063893735 -0.39230588 0.16813035 0.24774106 0.85577005 -0.049247053 -0.4082136 0.66160285 0.6230541 0.21896121 -0.21646722 -0.55155516 0.18560655 0.17979321 0.44652787 -0.43550983 -0.29168686 0.42800274
26 -0.025138557 0.11999123 0.54462826 0.42791528 -0.34993973 0.051781755 0.28189105 -0.31412145 -0.5142911 0.015864572 0.27683386 -0.6893158 0.012266645 -0.25322697 -0.07809869 0.023485435 0.31862235 -0.13102175 -0.12601665 0.2563671 -0.12177374 0.43031898 0.39115548 -0.11983303 -0.11838133 0.02103816 -0.6392749 -0.5054157 -0.56482553 -0.21693097 -0.38705558 0.6477482 -0.9956813 -0.39016104 0.53188944 0.15434405 0.85028404 0.7866518 0.13772476 -0.05416815 0.5393816 0.10884517 0.096636094 -0.064362444 0.37573862 0.2667142 -0.0385585 -0.3680099 -0.1735506 0.43292558 0.1842107 0.38136363 0.12325294 0.15397 0.66429514 -0.04929668 0.117303334 0.3134572 -0.22443649 0.16803642 0.18466283 -0.46492535 0.64577514 0.48111713
30 0.06735744 -0.07126939 0.12528563 0.2935949 0.015022977 -0.14483187 0.20926154 0.1621688 -0.41871 0.49810073 0.16645536 0.008953483 0.35697913 -0.013549069 -0.23259036 0.6514866 -0.022440782 0.2941374 -0.010443116 0.25584906 0.6515453 0.06504214 0.78211266 0.06935028 0.43203068 -0.0051328773 -0.10206712 -0.46461508 -0.5015257 0.004848643 0.3998614 0.36667618 -0.46145168 -0.06458347 0.15924528 0.0885787 0.2085327 0.08801781 0.3341833 0.2081222 0.34135944 0.35266915 0.07502023 -0.19048113 -0.10759822 -0.32321236 0.025684997 0.3068465 0.030071981 -0.001045158 0.06338416 0.019951396 0.48646265 0.07516026 0.13804266 0.2482192 0.63971823 0.49843127 -0.1769771 -0.24220084 0.4931623 -0.5447616 0.40013683 0.20711386
15 0.35636798 -0.22366403 0.80700046 -0.04774042 -0.54036576 -0.5451792 0.08543066 0.7331104 0.1354876 0.17778808 0.52210665 -0.30504218 0.48704848 0.18249145 -0.2659326 0.03815956 -0.28973538 0.2904019 -0.04908175 -0.3307948 0.60572493 0.1286995 0.26644322 -0.069762565 0.11966861 -0.18395801 -0.15923256 -0.21427166 0.23901843 0.27494606 -0.12457586 0.4608868 -0.25215054 -0.37656608 0.23454162 0.11179261 0.652883 0.46651065 0.15887491 -0.18238646 0.11042319 0.29325804 -0.122698605 -0.23958613 0.4346957 -0.04786455 -0.0929224 -0.07804376 0.31224474 0.5794598 0.0032222786 0.24372919 -0.47619146 0.13176712 0.6673921 0.16901319 0.5430921 0.25194594 -0.20131066 0.010374319 0.3332168 -0.35468754 0.027270982 -0.31474417
12 0.38919276 -0.06980803 0.4403996 0.071562186 -0.1583399 0.08588405 0.30507675 0.37577906 -0.23555781 0.045837846 0.3761684 -0.5220127 -0.1117333 0.04180044 0.41802117 0.55754894 0.26658392 -0.49324915 -0.11109136 0.6797915 0.32677457 0.52744883 0.4745816 -0.3102753 0.12642609 0.661197 -0.2879208 0.1724176 -0.46972 -0.022849668 0.12252465 0.19734406 -0.86790156 -0.8415134 -0.3999071 0.22566995 -0.07139191 0.81428486 0.382157 -0.5568638 -0.2973298 0.5673227 0.06330157 -0.492597 -0.09403921 0.0095335655 -0.010733784 0.27832288 -0.3307509 -0.024412945 0.254623 -0.084062286 -0.24313737 0.5610665 0.04590191 0.31772885 -0.1642081 -0.2086845 -0.29509997 -0.2213462 -0.11509647 0.6014465 -0.14962703 0.5313223
28 0.3301342 -0.31519714 0.16324435 0.5117704 0.012652057 -0.49454296 -0.17480153 0.5512897 0.09526644 0.39733437 0.32888263 -0.47754824 0.1673323 -0.2286094 -0.35893312 -0.07774636 0.1342037 0.4004708 -0.4801571 0.17403062 0.7649825 0.2487168 0.7175631 0.35326296 -0.0102027245 0.033982445 -0.38417706 -0.04169062 -0.092755325 -0.37902912 -0.37579873 0.058847878 -0.1101861 0.021597845 -0.31026784 0.032854248 0.5584263 -0.2823288 0.70962334 0.4810051 -0.02153351 0.13700847 -0.18155076 -0.51153654 -0.34923923 0.17574495 -0.02202438 0.3042102 -0.073035315 0.018930705 -0.14407352 -0.12957811 0.15184593 0.54039466 0.36446685 0.24609865 0.13413998 -0.47537932 -0.3309678 0.47104087 0.5961512 0.15876476 0.30534932 0.4043384
14 0.103182666 -0.1234012 0.80863357 0.07123502 -0.14324103 -0.1680656 0.17436498 0.7319695 -0.04598925 0.4090178 0.29097947 -0.15555812 0.04251592 0.17889336 -0.5325535 0.40834153 -0.4037671 0.13574667 -0.009687298 -0.56172204 0.5490965 0.41311795 0.5124014 -0.031445332 0.123802856 0.31403187 0.17076416 -0.22805668 0.123425096 0.08299922 0.022632418 0.19111916 -0.4280989 -0.624411 0.23233671 0.09192293 0.5864697 0.29578084 -0.029238869 -0.34040353 0.20843025 -0.1397461 -0.3801693 -0.24332526 0.5245451 0.357314 -0.27645746 -0.1509259 0.095087364 0.5542368 0.09994251 -0.07565962 -0.285909 0.33624217 0.54791796 0.06616971 0.26709646 -0.22633806 -0.24302253 0.012351809 0.4649333 -0.23407713 0.16706674 0.025468377
21 0.24793725 -0.07450054 -0.16556264 0.56276804 0.20565726 -0.16726227 0.19403084 0.6732452 -0.15211113 -0.031691037 -0.013720608 -0.43158144 0.5325972 -0.110903114 0.19645053 0.20699836 -0.0862744 -0.12696701 -0.6092562 0.2026597 0.1714535 0.26910767 0.4056585 -0.33154646 0.023652969 0.36858463 -0.091844685 -0.08807939 0.11902467 0.06517725 -0.20593275 0.10460577 -0.679948 -0.5504116 -0.12951379 0.5037414 -0.012303352 0.53920346 0.8360985 -0.14155512 0.13852099 -0.19574279 0.38911504 -0.22533321 -0.35670584 -0.3710804 -0.19854231 -0.5162556 0.086827956 0.00744784 0.62586415 0.104617275 0.48373467 0.51200515 0.47135368 -0.08914343 0.53731346 -0.31640702 -0.21329412 -0.41660437 -0.21559626 -0.57923096 -0.4566122 -0.16810119
22 0.124116376 0.030778395 0.29470718 0.20514461 -0.55700237 -0.3883699 0.2761423 0.6751755 -0.452716 0.4569199 0.44335836 -0.31823915 0.42993024 -0.33444497 0.020743553 0.3013991 -0.011289066 -0.082011186 -0.22856091 -0.27440244 0.38271838 0.20943989 0.63682395 0.36107963 0.41724738 -0.151485 0.3208662 -0.008601232 0.16594222 0.18218589 -0.12736653 0.31172693 -0.5335379 -0.42604303 -0.22593887 0.0950338 0.54438186 0.20587458 0.21343167 0.045231856 0.22392812 -0.14256945 -0.10505989 -0.5398177 0.32172245 0.4780942 0.21042737 0.31082386 0.29259917 0.5722737 0.16449068 0.46199015 -0.34490627 0.5797246 0.5683994 -0.096626334 0.5517769 0.28189844 0.21954149 0.20225607 0.51326185 -0.1341274 0.48196527 0.039924875
17 0.39635223 -0.18672621 0.18586671 0.4139916 -0.007393146 -0.28213733 0.17226942 0.21966963 0.009693589 -0.44566223 -0.22248551 -0.013259424 0.3452684 -0.090924166 0.09011738 0.40195343 -0.15018567 -0.15174067 -0.31378314 0.2976002 0.2126824 0.32719952 0.68206036 -0.2574506 0.22335579 0.6143677 0.11914592 0.024582583 0.13575593 -0.27166024 0.02763098 -0.16368501 -0.3371252 -0.50777775 -0.2117528 0.5145983 -0.10334028 0.26627296 0.86832577 0.05811235 -0.105280556 -0.08421759 0.15489522 -0.33316144 -0.19980302 -0.22654746 0.109435245 -0.67239887 -0.2466986 0.013001103 0.57984287 0.55819654 0.2771598 0.60187626 0.0659707 0.102464184 0.45638514 -0.29912794 -0.02315028 -0.48425105 -0.17566912 -0.38048634 -0.2746366 0.29663733
20 -0.038461395 0.12429929 0.91121215 0.19193594 -0.2065607 0.05953052 0.5579241 0.7224607 -0.18102586 0.71825236 0.6368818 0.29293767 0.19147375 0.10695744 -0.18551797 0.16687188 0.054673303 0.29196143 0.32094663 -0.35255805 0.34436694 0.48204124 0.29201624 -0.3570382 -0.08179099 0.105327934 -0.111967355 0.18949144 0.33441222 0.05958938 0.04192586 0.2739786 -0.5911663 -0.60853636 0.2538347 -0.1552581 0.5729659 0.5929869 0.49345613 -0.092066936 0.31100333 0.0919163 -0.107823655 -0.5047786 0.4559148 0.39027703 -0.03667401 0.20615402 -0.41110644 0.48602256 0.4858035 -0.11780673 -0.21585019 0.14847787 0.56425935 0.07321375 0.625041 -0.024707975 -0.07373602 0.005016837 0.62278014 -0.4759131 -0.06611277 -0.15401588
18 -0.014737926 0.2109545 0.25415504 0.025798379 -0.7376735 -0.16461423 0.089916416 0.24287266 -0.11840189 0.623534 0.32148364 -0.45012325 0.29016715 -0.013337656 -0.6042767 0.41087732 -0.3260561 -0.056544673 -0.2055594 -0.46529365 0.46398082 0.5866166 0.6212501 0.36024794 0.1505217 -0.010973984 -0.0740895 -0.2653296 0.10711307 0.19181158 -0.4857104 0.06254426 -0.77865964 -0.55258155 0.25239664 0.3148972 0.6376822 0.2902235 0.4494892 -0.12272002 -0.05916226 -0.19224758 -0.23468602 -0.39418 0.33876684 0.4945341 -0.25860834 0.05388741 -0.12767115 0.39445472 -0.19524294 0.28568968 -0.16087437 0.14209118 0.393028 -0.009793469 0.5926629 0.33667374 -0.19831997 0.037834223 0.12222432 -0.2796278 0.28427693 -0.08675165
19 0.44165128 -0.24533145 0.032998826 0.022955474 -0.1315741 -0.58275074 0.0152132865 0.47600612 -0.53838676 0.25676557 -0.33601853 -0.6438273 -0.05662877 0.36404964 0.16450612 0.5507419 0.02496873 0.05294713 -0.30969438 0.4791555 0.40526378 0.34490985 0.41868833 -0.0668927 0.43481866 0.20234357 0.07933359 -0.10735933 0.08563874 0.121899076 0.07156236 -0.2381571 -0.53765434 -0.23801394 -0.18723951 0.31468537 -0.086564474 0.35557565 0.1376494 0.27206573 -0.20102677 -0.24122061 0.13522753 -0.26473415 -0.3545978 -0.27546623 -0.021923179 -0.5226396 0.014711727 0.37058225 -0.057476573 0.46537778 0.2758541 0.79464775 0.35016373 0.0944998 0.33324352 -0.12488524 -0.3312753 0.16929959 -0.12498487 -0.64210254 -0.4360555 -0.20146006
9 0.28754216 0.15666312 0.29295194 0.003670379 -0.16301377 -0.3359273 0.0037916056 0.58682376 -0.02145581 0.22194958 -0.025498498 -0.53108484 -0.05413842 0.42625108 0.06914506 -0.025091708 -0.29610455 0.40576705 -0.3802109 0.11827702 0.8234659 0.0031619587 0.73134506 0.104896806 -0.123440504 -0.14005265 -0.03457703 0.18003827 -0.18632951 0.03775805 -0.39627942 0.04542674 -0.34752944 -0.1639133 -0.14048249 0.11021626 0.23203324 0.4888539 0.5076953 -0.07379695 -0.26454037 0.5594374 -0.29990834 -0.33902347 -0.0630515 0.50311446 0.1917124 0.1055748 0.08006356 0.21414727 -0.5173227 0.20364933 0.2645375 0.43557364 0.8803826 0.46010512 0.003383215 0.31019735 -0.27503636 0.00062868686 0.22749913 0.11620514 0.31046882 0.32715622
11 0.6530878 -0.018654922 0.0075916066 0.012648666 0.10091002 -0.36315754 0.1776335 0.55655336 -0.3304059 -0.64081097 0.0957853 -0.08677283 0.22015788 0.14251989 -0.043245193 0.13593866 0.34056833 -0.058394708 0.23917222 0.19112828 0.3108129 -0.04554941 0.53868544 -0.58715564 -0.04707098 0.038419068 0.037799086 -0.16991861 0.12376801 0.021265011 0.27238792 0.04177115 -0.93259627 -0.8188374 -0.109778 0.21475747 -0.6042915 0.41082418 0.83998203 0.37836406 -0.21066569 0.007967187 -0.041261494 -0.59894884 -0.14862996 -0.3750401 -0.41116738 -0.79996186 -0.24905707 0.44385338 0.20845032 0.6161502 0.23680183 0.6379612 0.5451272 0.22503403 0.121774696 -0.21408442 0.25535846 -0.12518895 0.13125035 -0.32285112 -0.16789156 -0.022558095
